{"layers":[{"type":"Conv","inChannels":1,"outChannels":4,"kernelSize":3,"stride":1,"padding":1,"learningRate":0.001,"weights":[[[[-1.6163367295024702,-1.486372261429584,-0.08621517155847071],[-0.9265430906706097,0.5764136202402199,1.4432023859117282],[0.1993163294162952,1.1640681726938205,0.4973210984527572]]],[[[-0.9524582085316264,-0.035224183910045365,0.8543623460553327],[-0.8919770444376636,-0.24068263094902503,0.717320371027379],[-0.9026382874063316,-0.6122781919013899,1.322822912352654]]],[[[0.6757974020814742,1.8093720117752994,2.079029193427519],[-0.9547270281773247,-0.6979254561942267,1.448880809958462],[-2.2602043709103277,-2.053510778639994,0.07305750097064245]]],[[[0.7095964088300454,1.1619178284517118,1.3222220304440055],[0.6782385968704443,1.0977767995945509,0.47060908467707574],[0.29243924427659124,0.125832996247304,0.42198277203407325]]]],"biases":[-0.05248044746596899,-0.025028281737294225,-0.19557513036336932,-0.0068123885448320666]},{"type":"ReLU"},{"type":"MaxPool","poolSize":2,"stride":2},{"type":"Conv","inChannels":4,"outChannels":8,"kernelSize":3,"stride":1,"padding":1,"learningRate":0.001,"weights":[[[[-0.0907373044735521,0.5125926559294095,-0.0263892741280308],[-0.41868953934219577,-0.356180865662943,0.26903142343465364],[-0.15170234011857464,0.4262484351757556,0.4065318052001767]],[[-0.3893451401922124,0.20798965320474366,-0.1063477855388172],[-0.4241022379588832,-0.3682610991788337,-0.07795420679824094],[-0.458614142081848,-0.30993315269424754,0.12478672951151851]],[[0.06444530565849563,-0.3312829803653806,0.13037252325369444],[0.8543030074658327,0.34397501537976566,-0.7425094243022602],[-0.1360110750066228,-1.0419959676887127,-0.958142314201048]],[[0.974276045337206,0.958777454710808,1.329834869076589],[0.21103220698821432,-0.4309017490290929,-1.4420379056361332],[-1.4683115750501112,-0.9159845262798703,0.10060746650815514]]],[[[0.03804872197736472,-0.3268100439299163,-0.6292543850663257],[0.4964206961337999,0.06635633331473596,-0.7168589008474409],[0.2024322187648659,0.2272961428799882,-0.005931782752594147]],[[-0.2766334712561635,-0.2544865998429292,0.04164485251842649],[0.10748656872417682,-0.10672490025636433,-0.21829696266706183],[0.5123095892321555,0.4267797102738976,-0.2066050761393693]],[[-0.9279249915336278,0.05359565310616482,0.5512400504521842],[0.2532903851618997,-0.3179815494146281,-0.570277820292869],[0.0737544425743083,-0.00789662646483521,-0.7169911724643969]],[[-1.7201687911453205,-1.534933061705314,-0.6240771557248759],[0.8392985003820805,0.23503804208972606,-1.415552541074247],[0.8807823219637285,0.9688570980303218,-0.49824833758253967]]],[[[-0.0994343673076744,0.6035661434050141,0.5211373752805205],[0.7871883846954082,1.0955968783039203,0.6318307019092112],[0.49604315753878553,0.3055308539245278,0.2633346965250219]],[[-0.004782371403143016,0.12810399112782075,0.0329579134822408],[0.08516744492978129,0.2935953404753594,0.09800944990641702],[0.2517937489822553,0.2773431088431635,0.35517172445206496]],[[0.12648175299021183,-0.25862940182492933,-0.48010716834543926],[-0.4037676177000514,-0.7356723057738125,-0.031908911544688626],[-0.595832715275936,-0.17247976804354614,0.04385688198451341]],[[-0.2784092074999619,-0.021141521071505052,0.5174419913860069],[-0.37089111883503323,0.8967671767866793,-0.16582738869083827],[0.31829335414850163,-0.06999237047057111,-0.5227980816918905]]],[[[0.06525039239565653,-0.2761387365421647,-0.609798883001539],[0.022388124204518804,0.08401040313433993,-0.4246249963198648],[0.19639093003753053,-0.3067985422071152,0.030575366645161518]],[[0.6072981595104261,0.26729596325357435,0.14227851256803348],[0.6941096114806696,0.11854970288777611,0.18953412150603366],[0.7249226422065622,0.11077604871632678,0.1261349518376831]],[[-0.8152190125674247,-0.18480995698132158,-0.12754693560648436],[-0.3468266002878931,-0.1661718781828721,0.04327524412172336],[0.08075636359964328,-0.2913114877216208,-0.2433368380063081]],[[0.7066714049305812,0.7709945318605604,-0.39906452776619267],[0.8348884086516466,0.2555850494889226,-1.097315014540222],[0.41464964315408553,-0.21648537180455746,-0.7430337384417299]]],[[[-0.3528840160173234,-0.3491179265680542,-0.16830005185230953],[-0.5007779542432985,-0.6219792385939157,0.048463611375544495],[-0.6769375762487522,-0.5551169177568687,-0.6156730622786664]],[[0.1544035461457105,-0.09120975535864824,-0.3580380405698206],[0.38702835435973365,-0.0054973859984167,-0.14285896254173525],[0.3479081809820572,-0.19127680125514587,-0.1720387322685583]],[[0.4942311134648773,-0.024782645035623378,0.05342655699718761],[0.22737768459882088,0.23055589180326347,0.5942630912524716],[0.6214774538184062,0.36000838640232763,0.5140783904265485]],[[0.4190506549006687,0.284075755531763,0.05961100508202958],[-0.22648598029715855,0.2827405473783584,0.2039254790769351],[-0.6014197284794391,-0.10960964853151516,0.7363796927248368]]],[[[0.18776239498323452,0.5853741399497925,0.9209934554191049],[-0.26035093379036145,0.28013123737634155,-0.010415495862462739],[-0.7512314009652016,-0.1574295204099127,0.24064536638706227]],[[-0.2855527312605468,-0.10366241538449575,-0.08075946488014216],[0.04345112473750373,-0.002379942906294482,-0.3010873175498913],[-0.013339457143569766,-0.5009495614585991,-0.5760317660644274]],[[-0.6799239914558894,-0.7033967189025151,-0.9727394297845614],[0.5003311465579423,0.6232159244089177,0.6890489069806276],[0.9142105136423195,0.8530686879132935,0.3811118504463094]],[[-0.02237139217393624,-0.9715911289505746,-0.5893968109592898],[0.2928533324698856,1.0891407662799761,0.9933942910557786],[-0.8885747051055688,-0.6158754340334462,-1.0995118439030904]]],[[[-0.2167862796761711,-0.8433711887015353,-0.4272314092654142],[0.0022942335815958398,0.4693427503376341,-0.3889760511324321],[0.37948517931201586,0.3431411301171449,-0.2477067864205098]],[[-0.5049871411931051,0.16361048710806442,-0.08742876735966267],[-0.2633998830008701,-0.07307737820193413,-0.24547414627887895],[-0.3851882580823232,-0.347546658633264,0.09382898817836333]],[[0.6076076481446687,2.0765299074523225,-0.3699914221328953],[-0.7383499263750595,0.1473686408419143,0.805165972694879],[-0.2620080030246318,-0.052997037624925046,0.5802558735049075]],[[0.4983336177603931,0.030132731179530636,-0.704589867705223],[-0.6232161128000525,0.20965069708057213,0.49809536033702057],[0.48054836224880093,-0.07096296828799024,-0.2638895774648766]]],[[[0.2622903073505942,-0.12358740807073139,-0.30794953396026636],[0.12000145330895746,-0.2665863877897603,-0.2324453444764025],[-0.6011889944316867,-0.5590283952599441,-0.359301688272163]],[[-0.29238510475439256,-0.35056346141242556,-0.26999070275396975],[-0.19855906389485375,-0.24700596299866698,-0.36309721040393594],[-0.2959527398842818,-0.07897205706633807,-0.1710967932208553]],[[-0.5897810137308034,-0.5401888233718842,0.12928851044724227],[-0.606316346787555,0.015708304834829434,-0.2786727322329665],[0.2891670223631188,0.08966164538396233,0.4457918495115229]],[[-0.66960384837612,-0.7757669086574313,-1.1497508227178066],[0.6007677997382097,0.7058665311391081,0.5782792465555628],[0.2438179580255397,0.28448163622086975,0.9613109899418184]]]],"biases":[0.11096113036151872,-0.0005824796344029644,-0.6965446185992898,-0.5315487575266685,-0.584437301507213,-0.35769230678679076,-0.7675001892409493,-0.5361108404665378]},{"type":"ReLU"},{"type":"MaxPool","poolSize":2,"stride":2},{"type":"Conv","inChannels":8,"outChannels":16,"kernelSize":3,"stride":1,"padding":1,"learningRate":0.001,"weights":[[[[-0.48275648753972383,-0.019925958508606685,-0.6641642361133321],[-0.3785262968624056,0.3887782109605518,0.19492371875787137],[-0.6654462424845212,0.17570334509064656,0.1947008037557254]],[[-0.21779101093041736,-0.2493794268974724,-0.7714773854187624],[-0.004367101204568653,-0.2801211465508328,-0.35565505279944215],[-0.09282972543208726,-0.36898450441426245,0.13074890073987863]],[[0.19938556620698106,0.1504307045490267,-0.08073987386336423],[0.5864680053516421,-0.0006637028945550788,0.10382351058950041],[-0.014598501843533203,-0.21164309431107897,-0.07057282749407721]],[[-0.006021806438988348,0.40857956677545093,-0.03284492648744378],[-0.007970271039107682,0.09444282756998611,0.26308690783277483],[0.15624666668260123,0.40411207803048715,0.11082946971634862]],[[-0.5309177460371963,-0.33041677488593907,0.38255537600037015],[-0.8606223460468921,-0.31188028514962146,0.14105057055541176],[1.0666633660139322,0.37530433520001716,0.10544769480441879]],[[-0.3075125626836309,-0.29861500184864026,-0.8298331554100632],[-0.5779540542361101,-0.059177933523776836,-0.21831337705344392],[0.2459586504682472,0.2895347695120803,-0.4171073182455217]],[[0.11850332386370199,0.11807463571174868,0.4522098436744666],[-0.34609118524135524,0.2651661547695463,0.04254718045303337],[0.10552462228478582,0.14152210634552087,0.1010382790142998]],[[-0.4383107536799411,-0.4579630934050259,-1.2078041801853763],[0.2417553634308937,-0.13515829094570536,-0.6068619101140106],[-0.08268372655193046,0.10577791602764489,-0.0302757454896437]]],[[[-0.4639866645999813,-0.08365501789962404,-0.04134584923107468],[0.12117080960386209,-0.3557969844083606,-0.3040143724861493],[0.4457917169579335,0.2976369387103685,0.03985498990406703]],[[0.294052582934042,0.266323435397539,-0.1453388708732852],[0.3668815310757769,0.46999630663361164,0.2623505630069467],[-0.5302229340860093,-0.16759758022188267,0.15519527546565434]],[[-0.4830441431190283,-0.8973049444555705,-0.5102501412695063],[0.4020079360186969,0.02065109699897467,-0.518539629513323],[0.8322056370262122,-0.015483237858106335,-0.3138383708561199]],[[0.24778539043869335,0.06201488289530318,-0.4500790645087173],[0.22503286373890694,0.421153867505356,-0.30714101835610746],[0.30012479934294556,0.40001930746125036,-0.11708930834282205]],[[0.31536201761851496,-0.2783930754459742,-0.14317609052736174],[-0.024949205514413732,-0.2587051003124103,-0.1646715667269196],[-0.10673466719267598,-0.38985837007563257,-0.3264085961493735]],[[-0.3441160302713101,-0.5573211025124551,-0.2964564565170249],[-0.556130985704657,-0.47580976853098245,-0.034192257805714436],[0.2463520166907403,-0.328224532268724,-0.16899341604151205]],[[0.28637211468695384,-0.23550573455278176,-0.07129056021359265],[0.5721652434284878,0.01147705179154645,-0.34551813532479303],[-0.11007642681045966,-0.33155808742129816,-0.009451300690023808]],[[-0.044400010900250426,-0.19966834435302575,-0.17810532939564339],[-0.2044445748037731,0.15863613808374455,0.04048152108473685],[-0.08155008347737935,0.03564488667888985,0.23117659734862403]]],[[[-0.8513435952790259,-0.6684907184696827,-0.02899812872908096],[-0.8226961472492064,-0.1935493414440444,0.4169508698913848],[-0.01459549983284124,-0.10412256501640853,0.56409834827489]],[[-0.452863738263078,-0.90953939243122,-0.3769677313555725],[-0.5331890042221373,-0.47838447242717985,0.16250620402125956],[-0.539444235070377,-0.19400546936556243,-0.3839564464390392]],[[0.29081247988358505,0.8921337555795917,0.7996482318371558],[0.47982621316626956,-0.3987740861930105,-0.3279830957448016],[0.036638781160495806,0.07465984389867808,-0.13934269606588576]],[[-0.018096945800720084,-0.08451613810892217,0.6334968938402522],[0.1349706358983438,0.07167340106088399,-0.48794051622495804],[-0.6435962791969164,-0.38684466601415773,-0.19515482154671837]],[[0.2735829328377044,-0.3104165516108729,0.15916463343985376],[-0.0218607896851074,0.002215410059495403,-0.0905285765328143],[0.26227941724033266,0.25171662213846596,-0.7343570648699086]],[[-0.23000536816218922,-0.16660608840255944,0.1844167331329499],[-0.7346063203537528,-0.09198512429361677,0.1174821344787758],[-0.7202764626695654,-0.16918633716557507,-0.22093763483420117]],[[0.2642115861463227,-0.2864228884252153,0.37477827840578604],[0.3324556195760762,-0.07306807786934214,0.8072646495441611],[0.26481837099222116,0.6988122900296025,0.0974200571857522]],[[-0.11546998711483608,-0.273214728595011,-0.015529832908213807],[-0.5626720052003024,-0.481192958667767,-0.20894842891460064],[-0.42362682567729426,0.1781751340051459,0.10737780897081815]]],[[[-0.3968701958631786,-0.2699922990329865,-0.28401866513505336],[-0.3429721864104569,0.11447719801819907,-0.12294427503944753],[-1.0433464357322542,-0.648880843236262,-0.3371176269403832]],[[-0.1531867456958371,0.7748575308800341,0.3143864527558449],[-0.3843990601855434,0.1752014420173236,0.8601298352131923],[0.0941911813295517,0.6026945533243862,0.39438437488237577]],[[-0.6827786047548504,0.15272851995673034,-0.9114225164708043],[-0.6200757126049551,-0.014342991235332551,-0.12058077260260892],[0.31238731438167516,0.8955287778149976,0.9206602011947547]],[[-0.36683681211006663,0.014168259725590026,-0.7416107889268634],[0.40464058542390996,0.6439510744902358,-0.3829809380372361],[0.41229655294889866,0.37463862050730073,0.136635822937559]],[[-0.44315074516833086,-0.7355560888172997,-1.0082682104325564],[0.07802852036719964,0.01779733632652619,-0.30243949148311194],[0.13141758841969214,-0.05260106853525544,-0.5389190815538967]],[[-0.2460401698934276,-0.26515005382148366,-0.4456184205651305],[-0.26088503961219217,0.005705978858133813,-0.11835607025762121],[-0.7159754939569264,-0.10716405000400993,-0.11550655196868183]],[[-0.2884143891484189,-0.45251986653610854,-0.6368449655029313],[-0.27907833024262885,-0.5851682049187138,-0.46302950107416574],[0.20284345910756318,0.0063809269140768735,-0.1787365337625481]],[[-0.22718278393292854,0.16272309608138708,-0.2822341852726665],[-0.7064080199858747,-0.16047164780796333,0.344383770864877],[-0.3164347626623321,-0.0699128318617663,-0.06863955260034862]]],[[[-0.023754447998071297,-0.03972339931857984,0.7328622644852216],[-0.018388293051579546,-0.25991109939809515,-0.08360820792954464],[-0.842652100351066,-0.4819441945137532,-0.5107451958846972]],[[0.6034133878215212,0.8248005099616181,0.3606864730140772],[0.27766969757379284,0.16221408701842752,-0.007929897976089052],[0.3307649780782343,-0.015590495412005585,0.04682587349783507]],[[0.16018842818457685,-0.017636302888171772,0.08853959016146021],[-0.6189348261750655,-0.35463208301442334,-0.5436821856156523],[0.12554448407620944,0.5851456245750591,0.37206632267675394]],[[0.19663752539266874,-0.0452252896454413,0.2353702148121354],[-0.5998788793840953,-0.11521861136079371,-0.1567610979036719],[-0.5459020463413218,0.2561199124261463,-0.41453019841238936]],[[1.0584640099744482,0.9808951405247973,-0.02304803896377951],[-0.051233643924315626,-0.30988626432716637,-1.2069219072224588],[-0.9553389291658662,-0.6909346864927489,-0.4551926393351479]],[[-0.17932815153025342,0.3352194899301183,0.29012124605088707],[-0.0597243187639713,-0.03913046336933795,-0.3573612515081676],[-0.288914831256088,0.05580410536389819,0.27385716193354054]],[[0.26807749368388506,0.16553566871179567,-0.33535461079250556],[0.2216320941859724,0.02566731787019467,-0.3139625435388328],[0.05144752909869222,-0.39097718716317587,-0.4176243617611232]],[[0.4382990182883371,0.5278993065657225,-0.09608811784106809],[0.16758612085429347,0.04593609984360118,0.3653497221538141],[-0.12580023682478422,0.0018489467090933498,0.44380766607826405]]],[[[-0.12342826013717545,-0.39830242612911615,-0.3676904266405684],[-0.2248820932730749,-0.4902634120110279,-0.5611392651803316],[-0.17325112084060995,0.10211406337182544,0.5353616529995686]],[[0.0022480705233512734,-0.061051164613386166,-0.11322970608506942],[-0.33341379485630906,0.19719887961234897,-0.1980291993802566],[0.31607757777637485,0.21749890433798136,0.190030306496762]],[[-0.21924380161249402,-0.3650316145145978,-0.2529959586240668],[-0.019434079340387274,0.09745055941593987,-0.282760665786354],[0.4732363495690133,0.22731261086736818,0.0014206659305690977]],[[-0.43029470758485144,-0.36372590452831965,-0.0011640200089826208],[-0.4418005562408533,-0.34914725366827815,0.11214694092963612],[0.11618131665370776,0.0460049786202153,0.4658739128686318]],[[0.46410124413170817,0.1309863744940578,-0.483997676245135],[0.07781205104132133,-0.23069815074023897,-0.2983061399699468],[0.549811508546958,0.4348170012272081,-0.009281846017126429]],[[-0.2324719207060314,-0.4132737023510007,-0.47638566029383217],[-0.46217781890134096,-0.6139908307541688,-0.32310894235760707],[0.2914874203790969,0.4856227822047406,0.09863695589932346]],[[-0.08693443163788298,-0.18108915874500972,-0.2525716925787002],[-0.2596475922405004,-0.04815169552804829,-0.21669627280297452],[-0.2997414973871209,-0.19288119345100668,0.16897770346470092]],[[0.1475658495775277,-0.004538343286027152,-0.12334394096963569],[0.1659514053924116,0.12754883989314925,-0.23383020926055167],[0.5252755712498185,0.21876960085625227,0.020516962428763188]]],[[[0.23977577563574395,-0.33480576739116913,-0.46492504784065253],[0.3566023253995755,-0.5019789045950381,-0.45026171956817884],[0.032182095764761796,-0.5241680540447027,0.30318503901614136]],[[0.05587007180167958,-0.4346732670471918,-0.8034086479852359],[0.35073955699646364,0.14743091537780184,-0.43570925094387475],[-0.4848365269890732,-0.3738437780818799,-0.1759730396595093]],[[-0.7058753449678891,0.13580023569463032,0.5455301427977043],[-0.20625221342375746,0.3692568296387123,0.7269804921051078],[-0.295256872008569,-0.6748569026594611,-1.0033532060368906]],[[-0.6012479964623826,-0.5551297813113469,0.98436980142337],[-0.24158934750521438,-0.251044159891345,1.4268248170226092],[0.0016347975940715356,-0.02406295943424007,-0.10257063329121538]],[[0.326934951123955,-0.35045514587482446,-0.2240401685909029],[-0.14408262658060025,0.07011754334882947,0.38293779976355297],[-0.5865650847190548,0.11406696603302939,0.3223709140921675]],[[0.2865727251211783,-0.3482268521347899,-0.07715651454546818],[0.26507799331903653,-0.9312551873605158,-0.26451346911651186],[0.12359355044644282,-0.5369123604180559,0.1361149579610187]],[[0.7603151649015738,-0.1990284980396181,-0.3509652298052418],[-0.2815338861872639,-0.0025317192253108568,0.3716383986437706],[-0.07045603064658894,-0.23412579199552605,-0.13511318354739943]],[[0.10355047924693185,-0.162258170032551,0.36631787714545366],[-0.011467643652719541,-0.35130117087860835,-0.798388796660188],[-0.544296125525959,-0.4936981707167009,-0.22584232783217442]]],[[[-0.32435227853595167,0.600619949359241,-0.19994022968873051],[-0.043136258028037444,0.3176351549779451,-0.3293770889136819],[0.2610814177709526,0.11831279032372256,-0.6187048152624112]],[[-0.11505462614249876,0.09092855913615622,0.3343466792018018],[-0.020245368665782314,-0.08259480407220038,-0.08836517535513828],[-0.09877940540915513,0.1645260828358224,-0.05767094739091831]],[[-0.15413846896899722,-0.40953570707167136,-0.17787876468364017],[-0.15994177447442556,-0.278088656369454,-0.015035579365124103],[-0.07242539752834609,-0.06848702710233891,-0.03391219325779622]],[[0.3263218632289449,-0.44534363686279504,-0.348376534029387],[0.7301334725210336,-0.4569264293249208,-0.19423215451782347],[0.7201679540105452,-0.6603786123840969,-0.15039093148182767]],[[-0.08194912943988,0.06179420652210238,-0.119499418745858],[0.11766726667517756,0.01153763705369327,0.04067717432723429],[-0.01963660606465443,-0.10611790003612415,0.012067931759300364]],[[-0.03984287247090298,0.3374554242146724,-0.09345087750939038],[0.2548887737609758,0.22169573387042685,-0.10107573976455683],[0.3006182298198467,-0.03509000344700415,-0.3233272889025032]],[[-0.34588874558380106,0.14773160117761885,-0.10573279817318529],[0.10091493705742456,0.15151325344942052,-0.2851854163812117],[0.17568938878657003,0.035952272948237225,-0.11854587115070508]],[[-0.035589818345305384,0.12448614470027605,0.0765325881794098],[0.00928759199527956,0.026193923221589064,0.08182892573269476],[-0.04832640448403615,-0.09900739954850042,-0.22790047362931692]]],[[[-0.6715416575659439,-0.6708175373368588,-0.05675774284819823],[-0.6550330737365323,-0.9638723629615962,-0.8079174578564003],[-0.39732759348854135,-0.6131657980222347,0.17573448431399166]],[[-0.25223751601956534,-0.39226050141244223,-0.28376872270843945],[-0.09781011759294421,-0.46516384179175846,-0.19724028258352458],[-0.1656956417204026,-0.33152474712208624,-0.06941973659080958]],[[-0.3445637999729019,0.4037135988676604,0.5965229481017476],[-0.10263672878736194,0.5301358620490106,0.14658705330874833],[0.49316935803051204,0.4839571293504188,-0.3032564188548844]],[[-0.6759827269500099,-0.09909829980959829,0.20044697876003476],[-0.3203163590427506,0.12803305238272306,-0.13682068780217924],[-0.41854612433401184,-0.3853777423469373,0.1176860974193289]],[[0.020012724464598074,-0.24396975880632674,-0.030180188769084945],[0.010287089613700593,0.2679522291220264,0.30578909579023417],[-0.039934270548855746,0.20110250954523254,-0.020250601538748834]],[[-0.053685816837183986,-0.3376050276027674,-0.14371987192404256],[-0.538904369836158,-0.5682591479714864,-0.016597798762659856],[-0.3780731763640744,0.044505185754701006,0.38249640846323957]],[[0.04164720566870678,0.07846977689749694,0.2843782119664928],[0.12391671279444415,0.37379525790497053,0.36507394558423145],[0.2063472080977058,0.3387668931357069,0.2701429541074941]],[[-0.22408552491182537,-0.23483276000151768,0.015137339080730089],[-0.3636938639794815,-0.34151860001025086,-0.05374634557606151],[0.011832268921884277,0.0023658705706832216,0.30690975873839926]]],[[[-0.3480608966319764,-0.21221353458062406,-0.3173676773850141],[-0.31596346640085693,-0.09146887962014115,-0.6185202047209989],[0.1124487641546315,-0.06536021218295104,-0.47097124255884604]],[[-0.526173010676088,-0.03034137148109749,-0.07720102649056566],[-0.11315180179620395,-0.33622681296733936,0.35545320750671955],[0.39560139198283667,0.3705006591593831,0.4737995709707401]],[[-0.5452878696530733,-0.10586961299776193,0.02916945049427648],[-0.16483018426064483,0.28662914562018543,-1.146318776129878],[0.077104300778036,0.8134260511846554,0.7429928127863615]],[[-0.8378171632863736,-0.5410768741526337,-0.5045862750179722],[-0.7628043424151872,-0.4147575114523019,-0.8205036114791537],[0.24562196036004602,0.11391487873345786,-0.32978832068060104]],[[-0.3973309971086708,-0.19427324300109305,-0.039371732112044776],[-0.5300090720636803,-0.05897599251785996,-0.05107629055208779],[0.27862504481916545,0.005408934650621382,-0.3211553365771148]],[[-0.1182218199559886,0.3845209906926782,0.3577612342019204],[-0.05893622814666101,0.33025354441974697,0.1298034480803538],[0.09635087447352529,-0.11034105678795127,0.05769008588393568]],[[-0.15338353769068827,-0.010230483225208326,0.03914013570256309],[-0.14442824517509048,0.17830328352108135,0.041349194844327065],[0.05049702266141001,0.051699433268821864,0.3194382518350909]],[[-0.22340036784639394,0.07830690314748098,-0.212287142970116],[0.12137828012835315,0.37099961597776115,0.2519570548979618],[-0.022956852690766246,0.18930285852668047,0.2879066237576724]]],[[[-1.0605097850231937,-0.9308858769430717,-0.424710628130082],[0.19879196425002915,-0.2887338649349295,-0.3614432100973869],[-0.6203227541506834,-0.5488095242866755,-0.4397694462359271]],[[0.2430157528999205,0.3108761320696831,-0.043147166386648714],[0.16951393756031521,-0.13137483066882574,0.007695840227423791],[0.2071207684444389,0.3360284604485727,0.19176226032484403]],[[0.28815353072263705,-0.36562850457049456,-0.3671696934118012],[0.28328162304511884,-0.4062531461843722,-0.5241305028461004],[0.5059084117872032,-0.23202541669580246,-1.1258052121012134]],[[-0.6030831814879454,0.10481766672677909,-0.31589656891638795],[0.10139499206499478,0.21204198479918415,-0.09797119855721612],[0.4596170658171691,0.38289961142832796,0.5451939828197331]],[[-0.16474980450704146,-0.3491257746045889,-0.3956115356756537],[0.09040051367493394,0.13024153925216048,-0.29084611354698914],[0.20638783446704398,0.575503194045243,-0.06580459275981754]],[[-0.4016068276953184,-0.26599890625762457,-0.22170982217463264],[-0.17435760644750012,-0.5437202334926275,-0.35193659821168893],[-0.49075032818371966,-0.24799525682845863,-0.395307742475569]],[[0.061800451504778885,-0.4853833283848226,-0.11604400041729475],[-0.3459668167029972,-0.3995221413373633,-0.24229791922390015],[0.4219588609344179,-0.10312679930111823,-0.5476573356292073]],[[0.0887340182415637,0.37218648156487094,-0.06492239827941335],[-0.04004606310881275,-0.08237784564077807,-0.11329478018871851],[-0.15697322129878272,-0.1505110401250577,-0.16490374418121603]]],[[[0.3347616882994315,-0.23262479035848957,0.1984311994289138],[-0.12650451998101575,-0.4352074055377708,0.337088851157107],[0.32787111587960466,0.14620261046960992,0.5278742258123964]],[[-0.10092084047618981,0.039649679644178586,-0.5948885084742327],[-0.49865981915552066,-0.6390392042836056,-0.7565866954328578],[-0.19151859942293042,-0.6509783795579587,-0.49249972691328014]],[[0.1757409686720088,-0.6637681394535481,-0.6005701799877726],[0.15609892457471336,-0.07910138380577819,0.22787966809602217],[0.23795267097638836,0.6457364868080078,0.523550325052927]],[[0.03660110596674299,-0.057566291592461724,-0.5735284016882407],[0.07444163184099743,0.28045499541497176,0.579602179410395],[-0.25638343519839357,0.6255762597744023,0.23609078505197212]],[[0.36208665442254045,0.37473850490210914,0.402288602762907],[0.03234308290227751,-0.4696299626331741,-0.6918194852990229],[0.1471983569301657,-0.7269631582348871,-0.7094002357578991]],[[-0.3194621349077355,-0.13521835600079632,-0.012272746406617676],[-0.01836917879152926,-0.32927230774319965,-0.4718869092228061],[0.31868841587569885,-0.14894715269714484,0.02878690077820326]],[[0.6148711175114516,0.18984994819553402,0.4000028682214162],[-0.28299489261307736,-0.38983160057837113,-0.25964983099264144],[-0.007421090921115174,-0.36285320070522203,-0.27266122370107476]],[[0.010586191345879046,-0.010991311955375397,-0.15422628085196102],[-0.22867386072078996,-0.0811865101113053,0.00859040251722483],[0.04173557026123609,-0.16328694269717745,0.11203339694836983]]],[[[-0.11890324840350477,0.4927548218576402,0.5865963352105394],[-0.2538565934280963,-0.012812033375503526,-0.1187876276268925],[-0.6787501061566136,-0.5775238377373398,-0.005139280122789355]],[[-0.13690246016188787,0.1950660395150608,0.09966407263519352],[-0.06471573882925001,0.3878227718204762,-0.16964665138087623],[0.1792662631077367,0.4024331276224885,-0.3200974150830055]],[[-0.6462091689025683,-0.6196322808275384,-0.20144182595385396],[-0.7905434781792334,-0.2282988969981325,0.8398282427526998],[-0.6776542765221111,-0.14560240813649042,0.12930700882415103]],[[-0.597024842079118,-0.3102134215285182,-0.9535997696511357],[-0.45510510697215906,-0.24194572886708052,-0.3338707077429781],[0.15381058506779918,0.17162922015429366,-0.1748351247767263]],[[-0.701222602331664,-0.37762757088847776,-0.2519635927632967],[-0.694026095872363,-0.0887422141077878,0.17331002544485016],[-0.3212184094764617,0.8124836209242962,0.0370001473308139]],[[0.03196778209416714,0.20140342749746742,0.007405688961380264],[-0.20573900231500045,0.2688478271950792,0.6912757125969795],[-0.45128477224940067,0.3362864960547291,0.42104061557671985]],[[-0.33088213405891365,0.0030035986525123134,0.1121565927554614],[-0.26999839588001573,-0.046068614777649175,0.2615395327677382],[-0.27940946170702874,0.24898455923285373,0.05243105739175435]],[[-0.17224830718995157,0.06681028234994578,0.29853172757868845],[-0.332770758644873,0.09890328382975977,0.25279190578286653],[-0.38350028993294727,0.10254022827439212,0.05831897452972933]]],[[[0.0014054616916104382,0.29840379781171084,-0.18130196874004023],[-0.06188941900352278,0.35625025273524885,0.2856587593204652],[-0.026178455087309208,0.014560771035074485,0.06618180981453647]],[[-0.332319487529137,-0.417720021100603,-0.6018873007179358],[-0.02834722861880854,0.030264304699282884,-0.07938735015950169],[-0.08233347659124572,-0.15571949786725006,0.05397466001607559]],[[0.4268061981947918,0.06692115780392838,0.09146515233901908],[-0.2074858172161977,-0.29267202038742973,-0.22977824097558838],[0.0986718827837401,0.09879349521507462,-0.4645485498978251]],[[-0.26364279554291714,-0.6198599132183586,-0.14276448645394924],[-0.846719260525238,-0.5987684906448157,0.2705597968432527],[-0.10666360413076198,0.10033848469928638,0.2345910424368982]],[[0.4133238384190119,0.924344745690943,0.6731104256365871],[0.09729412955006135,0.06813072038497292,-0.12604657967490063],[-0.3486870821788883,-0.35918859356983995,-0.9086226800103839]],[[0.022533078578858487,0.043641831214210475,-0.28891880881829257],[0.03945312390981929,0.4249234880223842,-0.018497323560286365],[-0.13136523718628298,-0.06195417560897504,-0.15374937283416432]],[[-0.1590129097397119,0.22923168989379697,0.23873108443315313],[0.11232911649199095,0.05260940494258075,0.32530690072758983],[0.01584891568135696,-0.060951229313014964,-0.5978165631212837]],[[-0.18972067617337704,-0.08924437649006875,-0.636327190283936],[-0.010912548013460897,-0.00917527413905099,-0.23025700214160041],[0.05112084429886716,-0.11509378565890838,-0.3204482177738003]]],[[[-0.6434953073857471,-0.5133473765388588,-0.3328430000176097],[-0.7634258482453892,0.19773103705655767,1.3450824540722488],[-0.40329996468508816,-0.018809702735213773,0.37734888749923456]],[[0.4877405273231949,0.6469350416495971,0.18330640876968798],[0.6820797750164326,0.004174950729108393,-0.5841904411131662],[0.08365376280014873,-0.020670915713008137,0.6601558001369792]],[[-0.4309689426086548,0.14741143989886116,0.2531464772001042],[-0.02923921500191127,-0.10866395963229253,-0.24568696932565098],[-0.45125144767001424,-0.7828289185532814,-1.1800605838068905]],[[-0.8239948583903065,-0.22685480680022974,0.7488318877202029],[0.00876624287549362,0.04112817866449689,0.37876371536934816],[-0.2422693365579348,-0.37621132897992515,-0.38610500635691264]],[[-0.2726404885548589,0.2415491511932297,0.7122457415923654],[0.15189879182614738,-0.13166290881019926,-0.18770881566798514],[-0.1735508684106886,-0.3936792650137373,0.11017282969363701]],[[-0.2274220148619107,0.06192449145879724,-0.19891698786831244],[0.25452247524612653,0.7214379706861258,-0.35448700490259566],[0.13784902241019192,0.19194661413499503,-0.011208864298887693]],[[-0.23974330494647605,-0.3448323835200801,0.1315282687025575],[0.08933017496878065,-0.1375086505811578,-0.21283280219530665],[-0.1382998985939705,0.08046941973108661,0.35501502125809015]],[[0.020424602561393484,0.011874950963227476,-0.2924251617647412],[0.6962243696953225,-0.23167348429822707,-0.3380234034058683],[0.021607769701800568,0.05530237277071272,0.0955205799593807]]],[[[-0.8240351584238641,-0.16941847324242384,-0.17631190689921822],[-0.37984160432941394,0.44917258073060046,0.035517688695794754],[0.41685915429251247,0.3737088113567801,0.10427821087916748]],[[-0.3303011724650359,0.3071725052003224,0.6046412256283232],[-0.7175983299855347,-0.1596344476184092,0.14533770083413547],[-0.5077820190741684,-0.566785123772612,-0.538728526084916]],[[0.18907381102400972,0.36950801370787867,0.06868436409180174],[0.5845015359826402,0.11671413548686277,-0.010890586553245745],[0.20488570575925413,0.10045296014830914,-0.1273669773364028]],[[-0.5898472368705849,-0.694810135128006,-0.3182956118266933],[-0.01810648739021755,0.1418442858260226,0.5571186248632656],[-0.61902962357754,0.008560830609926108,0.060904381466665054]],[[-0.5441404679905989,-0.4612844989914865,-0.063300911661834],[-0.18199298717474363,0.020091774991725382,0.0930381778272955],[-0.3908078437420346,-0.2707996508018915,-0.32887560009585726]],[[-0.02161502502001908,0.08777997729377336,-0.3515056839601041],[0.3572394693522013,0.11104651535721265,-0.5343502833529891],[0.4274951051892848,-0.32526809854436245,-0.6174083534060795]],[[-0.5380643476665495,-0.5276968871727039,-0.017706012623045386],[-0.061438231746220574,0.044615791869777134,-0.2488290629162731],[-0.21634127950349671,0.1282338656894449,-0.119176862045388]],[[0.052937651671391084,0.37532593337695336,0.39039241804855707],[-0.3060920209002375,0.2804459190221202,-0.054643407321373384],[-0.1366979414215459,-0.1538111036889587,-0.4504775565172482]]]],"biases":[-0.138255117118686,0.27351276705739175,-0.050501525518900726,0.47326171083360696,-0.07381384163922038,-0.21162060792519674,0.216381472394744,-0.055512595979278295,0.02443141735640124,-0.35204618545863775,0.10631462892197309,-0.0550708638102584,-0.34563805427083244,-0.3238978151611147,0.4749309729986706,-0.03388593726383263]},{"type":"ReLU"},{"type":"GlobalAvgPool"},{"type":"FC","inputSize":16,"outputSize":32,"learningRate":0.001,"weights":[[0.48950913094333154,0.2658849587243948,-0.14727486665570616,-0.4033790373822874,-0.5889023422658372,0.09580928421595852,-0.018120981602778394,0.21446826475206718,0.36297886771407195,-0.08091318442311699,0.3568758718368842,-0.38216926619795344,-0.44153904268369254,-0.0001582545905611443,0.1842367356393022,-0.3218540170941238],[0.023664437461732562,-0.6879182041241275,0.1911507220913891,1.1591380759564056,-0.8304989447953574,0.3756157266336981,0.3522791037024964,0.7398332368559958,0.10081410216017207,0.14339527266163998,0.38131064682083465,-0.08329295649552287,0.8397017734043098,0.34228405598149075,-1.0312649675823031,-0.9094212873105747],[-0.3401687688986296,0.5386239869157952,0.17501124009682043,0.025516145187485857,0.49470903277335687,-0.7140708134318255,0.5639575904453039,0.043747712708649036,-0.067149581106237,-0.1969078126153291,-0.015291637036183126,-0.1811855898983362,-0.17719316200672017,0.8855421011850758,-0.5664210321486185,-0.09043352923076807],[0.6985756241511144,0.18606488590407452,0.30414665903306404,-0.6552208605678014,-0.9267484553338301,0.35619620314268297,0.6633152479320521,-0.2862741364034377,0.8163658041940506,-0.5526243711961157,0.5127406783496545,-0.13575378451551576,-0.6906230917524708,-1.3563469087945923,0.7497028229529096,0.27097656643775575],[-0.10730198698790247,0.15047723606826754,-0.18212678451854156,-0.025964971788289083,0.14195146812878412,0.012562343345539361,-0.09220342067732552,-0.09702315580211186,-0.05711013680862277,-0.02274176376709523,-0.12065391088684532,0.08812212856184122,-0.044277136418361535,-0.10568792873111704,-0.08656326708008469,-0.1421549580184044],[-0.089531427036722,0.236275967354195,-0.7460864864672887,0.1419715573075745,-0.3747780100579721,0.7202907224444868,-0.5568808251711259,0.2606733726323849,-0.514528147184892,0.554950352571712,0.452213559874687,0.21449178468233757,0.17313283928160228,-0.16174934907349953,0.01741578215320872,0.35725394070951316],[-0.16066683274552135,0.022294434639681705,-0.5651429178113158,-0.04000127061836962,0.05739235929543515,0.4747058555535621,0.750557608919107,0.8284576889823438,-0.5990432611332824,0.944528271356437,0.23181562059702904,0.8743648124588896,0.7542955569924461,-0.5203234791338044,-0.5547426161180867,-0.5262090042944183],[-0.10132398056815271,0.11846324336114841,-0.20257319933015408,0.3888190929848439,0.33743278546682753,-0.08702502972454113,-0.2266429303189588,0.3715691583162629,-0.5058706889714333,-0.31918375354299333,-0.24757514335706293,0.25356601966411557,0.5566808366078182,0.06036458268507745,-0.34293308790553256,0.1903580570706367],[0.3433668891220845,-0.09108187133983181,0.2148479834323473,-0.5081777033308119,0.012015257934374617,0.30079900370691837,-0.08121295344711708,-0.012369950300624826,0.23719252473024915,0.42953577364513523,0.020248363604483965,-0.603315359483476,0.716477026011357,-0.15568381446553856,0.2458206834069122,-0.2380501141742015],[-0.07230413386808619,-0.25831085572578055,-0.3830676607596399,0.7873958698105117,-0.15878952696476767,0.44875075214943194,0.7219791778642735,-0.38516096611554657,-0.3499639161599176,0.03627783253937225,-0.0808177857950298,0.202781788532772,-0.6888198628882322,-0.008269586179845863,-0.020035805020013835,0.08689921511360925],[-0.18073566424535611,-0.17661170077558058,-0.04810802430149424,-0.08812938442219145,-0.09835839705918996,-0.01755581352162797,-0.1252502365447207,0.12711255530620907,-0.04434732596475948,0.10210389799803825,-0.11242037316818167,-0.08533013302985941,-0.035675525697459846,-0.11419956564735664,-0.15498599641598373,-0.04736523093649775],[-0.16524073870745662,-0.7521569836061884,-0.03254482805852732,0.18922692502526567,0.172769982296857,0.025427194998516207,0.28763172282491417,0.2656249306207156,0.4811279216675961,0.020315331882885864,-0.8641374206911332,-0.06114831958846152,0.22565030938544411,-0.4659370802833525,0.19080894663802295,0.4033582414874219],[0.04186470635135781,-0.12363042636766494,-0.020254034147303836,0.45505709131601896,1.0287922214842946,-0.33620262704798287,-0.45221247599578224,-0.121759417199294,0.6237944227382604,-0.5520837946207078,-0.9378989368673234,0.22102555613332378,-0.3019422913888326,-0.1568465833666554,0.7419573883932958,-0.315491707105932],[0.8146152595375091,-0.9664265319414734,0.6466817758890478,0.5767003598966357,0.9226386953698414,0.365054850854353,0.8000133110033947,0.6201096618472088,-1.0462628579958975,-0.3887447488431673,-0.15392616554849758,-0.18041721758422444,0.2599134223213729,-0.5303831066506307,-0.22259058538890397,0.5022086858845421],[0.056247351145012794,0.13173447070723227,-0.18851374778394847,-0.03277270602027967,-0.10956845184889523,-0.0024066711270718513,-0.0006729073033232799,-0.14316396498790518,-0.03734703774107727,0.13418698654436337,-0.18993242771663807,-0.17329215710567586,-0.17780912365902693,-0.20342952059376612,-0.022604727076627928,0.09710450285207103],[0.12159250122761153,0.5505484575241633,0.3823309368008515,0.11717941447321281,-0.6014897886295082,-0.10053160855835601,-0.6121344486397209,-0.42084139345126126,0.44035206350594575,0.31347235036569593,-0.130258272314358,0.44750962011051665,-0.06199015273532956,0.1546303471432735,-0.4140853622768579,-0.5249791460177684],[-0.9110601075776674,0.21165855531464597,-0.10627258058920054,0.8913995983475558,-0.15626441564722193,-0.35996937765886217,0.9763594895877109,0.20599470126920044,0.7127688641016588,-0.9547574921605668,-0.6539958819451429,0.21207377282255857,0.2402838835114681,0.7569719196236009,0.23399239390225482,-0.35481363934498705],[0.002406034975971321,-0.3246748490447621,0.23188176378610134,-0.7997393135344267,0.7179256214245513,-0.8479149119093005,0.2812353352779719,-0.18673193850861677,0.09631454156937953,1.0302578493000918,1.1022085004376683,0.27992466524003046,0.24835926417950566,-0.1923718379347068,-0.1987163448788397,0.2416524906958694],[-0.0464232668568981,-0.18383599126050867,-0.165771128976048,-0.018710881370096223,-0.1478501505488317,0.023589612145158114,0.026775615475503747,0.06424075169448167,0.16125450771922387,-0.14867354113758527,-0.19960328519218173,-0.09833065857725654,-0.04613994851664275,0.19094871826000642,-0.11642960748756627,0.02938344022509462],[-0.23116247348473482,1.0925964738326763,0.5025700510972497,-0.5584048145276678,-1.0627284673974704,0.4241970937120605,-0.6389375886200486,-0.4186981711998076,0.1777899954534997,0.5326419399495362,-1.0288753662675587,-0.7342831877628778,0.7189470966731992,0.06558417568629368,0.5544491518336204,-0.0009420359707868069],[0.4611560615488655,0.7078231621900466,0.11551881591107095,-0.746365749303808,0.41004972194349876,-0.41633384945487906,-1.1844081537893265,0.1389692552624586,0.07498933708693221,-0.18092277804868043,0.634634970780165,-0.6736244853175061,0.4778757642606837,0.8160484771552236,-0.8095840344385457,0.39671682601131936],[-0.2517332759588439,0.46466823698117116,0.023662869924477893,-0.5105262046800848,0.47921414185655875,-0.7879827669180666,-0.3700142700959771,-0.49854904073755535,0.5833654814777113,0.6862251350570414,0.5371553295893222,0.492090772956624,-0.46629576081451773,0.5148119371319421,0.1015434938186399,0.2938416566318696],[0.021340794361810314,-0.14750870944984804,0.13816447976962543,-0.1807486894910361,0.033887402326518795,-0.1608552933100153,-0.16928872677011134,0.15396819044596255,-0.08844995910699745,-0.04453191377445973,-0.11751782388822293,-0.19415601252189027,0.04466418796287792,-0.19700538644422178,0.1149043452529771,0.05800699695119371],[-0.6542047955596643,0.4310417562876352,-0.7316499359834306,0.03663233086952249,-0.4000946929719898,0.24374761429812003,-0.3079889130878802,0.3621850696615001,0.19490872846543275,-0.4870276100365089,-0.29685837856410313,0.04756675128685006,0.870723607064403,-0.36778843567126607,0.8594771215319924,-0.1549218649504381],[0.3937203328127095,-0.4599148940059837,0.04818129035114271,0.9069233748270074,0.1530262444813057,0.2939264267375701,-0.4221630669261883,-0.1285057727965728,0.7796904302846532,-0.5191764053974798,-0.31873078039816866,0.885969664452347,-0.33543724635765837,0.23511779829407653,0.05570090797832181,-0.727925342276668],[-0.248499584915346,-0.26710767796799284,0.6692937752246441,-0.7638831920440164,0.3903293354298963,-0.2751525740729458,1.110822736686163,-0.19416388503559884,0.12987569406335966,0.6301794122128439,0.34719510549389615,0.3948853800344185,-0.8434214500910465,-0.038584609439448206,-0.31528930916142633,0.5766929742503366],[-0.003793307524026231,-0.4347465226087745,-0.25176897509772284,0.6149659468654742,-0.41896635519595515,-0.23008206285978966,0.8133386058135147,0.24819010953445025,0.3455481302038387,-0.030857293962649128,-0.15554779934258248,0.6283013382005678,0.2068269651692079,0.06894795084291588,-0.8224174982337039,0.23557450784993453],[-0.09213758765143447,0.06049352806565565,1.0127589411309263,-0.3924550169887686,0.2524922836045243,-0.2765964196329141,0.571553321611777,-0.12446616150895261,-0.02955535945730057,-0.1655181635217689,-0.8269019562927691,-0.1390006063464879,-0.2977402940420481,0.11581896708647473,0.3962025665525625,-0.20797249962788197],[-0.0116557616070952,-0.03379667253286718,-0.2002177067709658,0.04954982478147956,0.11534011375295164,-0.10772921185217905,-0.19425342191116912,0.05042253493843874,-0.05034455667548931,0.04023110186841816,0.07898048153898879,0.019840936636709102,-0.11324768116450773,-0.20439726167037978,-0.012649535920476275,0.16083922006065582],[0.3594253571869798,0.19162478986991044,0.941237346709493,0.08122059372836686,-0.19875278216249873,0.2583251589918486,-0.35534018858418026,-0.5970686201836873,0.5699312760460272,0.6894933235932617,-0.7294662431224667,0.09611539100274283,-0.5595995916750867,0.29250187582521747,0.12031289143354036,-0.6322458365414513],[0.018555829060434237,0.04395532654381189,0.054607747619848615,-0.006022621120356548,-0.1049180680828586,-0.07043501384620829,0.2720178825004099,-0.019853063927452754,0.22139480662727434,0.08135168192636823,0.2840735074774141,-0.7001156519290631,0.7623303373806377,-0.03884610406468586,-0.2714635818175255,0.7320333183053569],[0.09612480990949938,-0.2934919777919378,-0.26632887174665154,-0.08027647750876385,-0.4052819761309352,0.3745536449941309,0.5337082299444704,-0.40573592772452277,0.2449046671917252,0.5882891675071787,0.47711397240310754,0.9684811078221873,-0.9851167822736423,-0.19792656278412177,0.05133729443607177,-0.23048086685118738]],"biases":[0.00997839639082378,0.6300149335094496,-0.12824482327899653,0.15638595830018537,-0.006319686560196334,-0.16622538049095004,-0.35035417323024187,0.07388886286300596,-0.10611830535894023,0.3129558894577527,0,0.10065280708050411,-0.24428033667999033,0.4286057640419555,0,-0.1504294501006648,0.39568455063767455,-0.4496566043114652,0,0.1255650349647458,0.12728254668215203,-0.4462929832955513,-0.000007932296411407895,-0.1403865974680674,0.028612623867664926,-0.020032275450158926,0.12291111317535987,0.10161244801601207,-0.0015713964889643036,-0.1283210348044803,0.048653143454797196,0.4543779988883291]},{"type":"ReLU"},{"type":"FC","inputSize":32,"outputSize":10,"learningRate":0.001,"weights":[[0.6552889884195803,-0.5673879527984237,-0.6759907329672671,0.988606218021268,-0.19650643047121838,0.030555149190691196,-0.35787559109481665,-0.0939481836109001,-0.18528872874029353,-0.3644146298395082,-0.02118457158150212,-0.28238653120871043,0.3709634302972713,-0.14776510952475852,-0.19884067125330054,0.2453987667910891,-0.4594899307692155,0.5294664722722797,0.20205059831307445,-0.7343191444749074,-0.3455549921634377,0.6912649748491458,-0.12064645677577775,-0.3533332796192106,0.6174232756622088,0.3351061440699964,-0.4661768185733352,-0.07083114328117303,0.11039683740118834,0.26735981047263346,-0.629775381845339,0.5692988884423076],[0.6188287421202628,-0.09114336782726093,-0.3075755535757515,1.1344129347620422,-0.07260521412613673,0.3326224693131208,-0.4772412669123434,0.5306782976483336,0.32014777928872057,0.7110825908547397,0.020598899655103243,0.46483572095138015,0.2062026386651824,0.9165786914890033,-0.08022098630960571,-1.0800508792062127,0.3036555504351078,-0.43336762439563187,0.17936217637645221,-0.6417594407022289,0.9719346290569736,-0.777245233653704,-0.11906040957084153,0.32730451993336807,-0.22538868005101895,-0.5600935699362541,0.37290572346502854,-0.4368650918288924,-0.00004756858565566515,-1.4200439191363219,0.6123353130356625,0.6012845861556604],[-0.5362304255351045,-0.32432024031066836,0.223945378802464,0.08509438249393406,-0.1952474959917859,-0.004413747486277432,0.013219765289736882,0.07973714064478127,0.3784324080433298,-0.13111836969702015,-0.0038816167857164867,-0.6247097058458135,0.12836997135839862,0.7116816061770871,-0.21803265065061758,-0.06913693988239414,-0.3256670795065626,0.8520185264977023,-0.030902588490723793,0.08323382624916723,0.7664011957847073,0.26443118972246127,-0.1982171327984452,-0.793932221165541,-0.2848015104249368,0.09714223773345708,-0.2171916350849128,0.2801323175129795,-0.023279983948094593,-0.07709361808199466,0.39506145745671867,-1.1455165412635826],[-0.033984732523697915,-0.4141075040933267,0.404375287337773,0.3234447945658888,0.13242548222945458,0.8792260931522666,0.25977024059317844,-0.07030695259525294,0.3408798923391587,-0.2605240250892753,0.15241848571204927,-0.23699587863896088,0.3280657504439151,-0.8048707161714732,0.052281991632355536,0.42342550172207016,-0.6518597035314718,0.04563276335361856,-0.027358734618929747,1.0267967161211644,0.7095958408004616,0.36377223220433397,-0.15195002380791187,0.33074908408776454,-0.5056367505497366,-0.4306917278527712,0.13490874798017574,-0.44215160079933785,-0.03317909992961949,-0.021467138956068766,0.11587045906646869,-0.06365836794183918],[0.4093525678285929,1.2358145033670351,0.06817327393110083,-1.2684584010224147,0.0414749888385054,0.30990414665360605,0.21718655352384075,-0.021905199483994255,-0.44593757839633613,0.09537241582547931,0.012126538869191874,-0.048217238827198416,-0.1915228553605153,0.37169661168988966,0.002416436807082998,0.16521814997041723,0.6483171636197688,-0.5074344052494943,0.07101736509777007,-0.671901823770585,0.1505129483082961,-0.5092390296417569,0.16415867171033,0.057095318270124124,0.6711117613319082,-0.45326771174428365,0.4050046167250268,-0.18944582789133566,0.09365884550636995,-0.15220594342372384,-0.2842768509023359,-0.15519083924094854],[-0.1963370341666373,-0.5697417417603579,0.05631220191289384,-0.1289551338265457,-0.08619424890083614,-0.11105845884856987,0.5504778849079623,-0.060883491640605546,0.38978432197656304,-0.49365986208636553,0.15672915261303463,0.7764626517191319,0.8583555139194331,-0.4320636697520431,0.05187319021616005,0.2311910780126239,0.37250922035251854,-0.4949521666948896,0.02618997478552242,0.623255970165617,-0.5857249090239642,-0.41314612872173684,0.09848356242754917,0.6355459265660323,0.21713045654156646,-0.9159346380530453,-0.03292428196953316,0.380812279254464,0.09878663942772567,0.2702719902922952,-0.36699362606127517,-0.10195351892356541],[-0.08173281614569484,-0.6723457045773331,0.3997370862620567,0.356123714491905,0.17620672192932862,-0.755447809233979,-1.3779495685795564,0.2172276552199375,-0.6194282598157141,0.6422628686200575,-0.027630345675044847,0.289391957887998,0.17316977194304836,-0.19195054360712055,0.16946647720398272,-0.01387030474159721,0.877224123445425,-0.4988645312559903,0.06424098873153733,-0.14077185377492893,-0.3270708543556711,0.3893461892645299,-0.047111988829604164,0.11397399532473944,0.15538753142487538,0.36032342812641904,-0.2579935773333309,0.8276702576418803,0.07218210994822205,0.20200488896222232,-0.2881128841603686,-0.047730229173077975],[-0.006455976774334879,0.5744943439142699,-0.6721837179169387,-0.08899431289007569,0.1789909969873709,0.4206903217252564,0.9801517647968966,0.18821351696435099,0.26841326487953704,0.4561314225185358,-0.11006024248343262,-0.5563621238554983,-0.8145074968482171,0.8734681467122061,-0.1454448598221379,-0.34441470302747684,-0.6877391277509571,0.1903912938087894,0.16787506894789428,-0.15221276570820017,-0.56017441029671,-0.6931654572319557,0.01825268207884205,-0.05227646668585875,-0.8823646134721184,0.3719208130392667,-0.4466771355392064,-0.11406026525492412,-0.007895067951022978,-0.2920640005874776,-0.007419381321884262,0.3368212522667708],[0.0073129931054337965,0.3021781362560249,-0.02332629607190016,0.21822265799042523,0.02533874466281269,-0.2583894566921535,-0.347226197006071,-0.24739929544928502,0.46340088922232686,-0.061356858214686436,-0.16846470275221684,0.42994782800648446,-0.2501100366035687,-0.2729086496490372,-0.206054756238842,0.5629872471993979,-0.07197590202722598,-0.11868295350976164,0.205958549369995,0.9486861855891653,-0.124456583118173,-0.20632192887763837,0.18373358878581117,-0.8075823584236332,0.11792520718899765,0.02782190225996646,-0.5413952662629342,0.22281606484236424,0.1360188137132631,0.7866187873167018,0.19778556757484217,-0.0028594954200082357],[-0.2131399129239217,0.5554912706889499,0.37302138743690366,-0.914061374815277,-0.19536139177624018,0.0675706334502043,0.5486236893507064,-0.8213592893867605,0.23340465994375917,-0.523044436945468,0.0580056483022632,0.12660444316565783,-0.5528133520196584,-0.6630678276699143,-0.11867262605172475,0.0192606787079277,0.5202011782920968,0.6213328303454636,-0.06381874744834551,0.07815827444575597,-0.6449081362496697,0.3326871244128168,-0.16600029894928786,0.5785397171276183,-0.3067876477940475,0.6342109187061735,0.893855639954146,-0.1905990837613865,-0.03711077733927336,-0.20459383964943245,0.21630546321243754,0.1560717813465727]],"biases":[-1.1760213149371554,1.1505872490450684,-0.25842959571170737,-0.5150039909706229,0.1419181416188723,-0.13766879272999483,-0.07763088867173251,0.5748742875416961,0.14843092580995057,0.14894397900808798]},{"type":"Softmax"}]}